<?xml version="1.0"?>
<opencv_storage>
<stage13>
  <maxWeakCount>8</maxWeakCount>
  <stageThreshold>-1.4086977243423462e+00</stageThreshold>
  <weakClassifiers>
    <_>
      <internalNodes>
        0 -1 146132 1.1941797100007534e-02</internalNodes>
      <leafValues>
        -7.5999999046325684e-01 1.7333333194255829e-01</leafValues></_>
    <_>
      <internalNodes>
        0 -1 133139 -2.0336513989605010e-04</internalNodes>
      <leafValues>
        -5.9457612037658691e-01 2.6882264018058777e-01</leafValues></_>
    <_>
      <internalNodes>
        0 -1 34441 3.9848024025559425e-03</internalNodes>
      <leafValues>
        -5.9261989593505859e-01 2.7141040563583374e-01</leafValues></_>
    <_>
      <internalNodes>
        0 -1 101552 -7.1535326540470123e-02</internalNodes>
      <leafValues>
        2.2799374163150787e-01 -7.8094881772994995e-01</leafValues></_>
    <_>
      <internalNodes>
        0 -1 65721 1.1806343682110310e-02</internalNodes>
      <leafValues>
        -5.1458781957626343e-01 3.5383731126785278e-01</leafValues></_>
    <_>
      <internalNodes>
        0 -1 119955 -3.1360997818410397e-03</internalNodes>
      <leafValues>
        -8.9327532052993774e-01 1.9690123200416565e-01</leafValues></_>
    <_>
      <internalNodes>
        0 -1 69291 4.1030277498066425e-03</internalNodes>
      <leafValues>
        -3.7403759360313416e-01 4.8827359080314636e-01</leafValues></_>
    <_>
      <internalNodes>
        0 -1 80965 5.2387556061148643e-03</internalNodes>
      <leafValues>
        -9.1388505697250366e-01 1.3380362093448639e-01</leafValues></_></weakClassifiers></stage13>
</opencv_storage>
