<?xml version="1.0"?>
<opencv_storage>
<stage12>
  <maxWeakCount>9</maxWeakCount>
  <stageThreshold>-1.2211042642593384e+00</stageThreshold>
  <weakClassifiers>
    <_>
      <internalNodes>
        0 -1 85227 2.5467740371823311e-02</internalNodes>
      <leafValues>
        -5.7088124752044678e-01 2.0502091944217682e-01</leafValues></_>
    <_>
      <internalNodes>
        0 -1 151414 -8.9602041989564896e-03</internalNodes>
      <leafValues>
        4.0025377273559570e-01 -3.8790780305862427e-01</leafValues></_>
    <_>
      <internalNodes>
        0 -1 143022 5.6441458582412452e-05</internalNodes>
      <leafValues>
        2.3101310431957245e-01 -7.3139154911041260e-01</leafValues></_>
    <_>
      <internalNodes>
        0 -1 131000 -6.4302827231585979e-03</internalNodes>
      <leafValues>
        3.8948884606361389e-01 -3.9797550439834595e-01</leafValues></_>
    <_>
      <internalNodes>
        0 -1 68778 9.6436496824026108e-04</internalNodes>
      <leafValues>
        2.6317307353019714e-01 -5.7541382312774658e-01</leafValues></_>
    <_>
      <internalNodes>
        0 -1 49966 -7.8039482235908508e-02</internalNodes>
      <leafValues>
        -2.6183184981346130e-01 6.4503920078277588e-01</leafValues></_>
    <_>
      <internalNodes>
        0 -1 87532 2.3870855569839478e-02</internalNodes>
      <leafValues>
        1.8849788606166840e-01 -9.2110306024551392e-01</leafValues></_>
    <_>
      <internalNodes>
        0 -1 63707 -4.4593769125640392e-03</internalNodes>
      <leafValues>
        5.0195831060409546e-01 -3.4701511263847351e-01</leafValues></_>
    <_>
      <internalNodes>
        0 -1 67830 2.8525246307253838e-03</internalNodes>
      <leafValues>
        -6.3024693727493286e-01 2.3793913424015045e-01</leafValues></_></weakClassifiers></stage12>
</opencv_storage>
