<?xml version="1.0"?>
<opencv_storage>
<stage5>
  <maxWeakCount>7</maxWeakCount>
  <stageThreshold>-9.5425981283187866e-01</stageThreshold>
  <weakClassifiers>
    <_>
      <internalNodes>
        0 -1 48795 7.8055597841739655e-03</internalNodes>
      <leafValues>
        -6.0634922981262207e-01 4.9189189076423645e-01</leafValues></_>
    <_>
      <internalNodes>
        0 -1 43358 2.4885632097721100e-02</internalNodes>
      <leafValues>
        -6.5493017435073853e-01 4.7193694114685059e-01</leafValues></_>
    <_>
      <internalNodes>
        0 -1 145494 -3.1864754855632782e-02</internalNodes>
      <leafValues>
        5.6458085775375366e-01 -4.3858072161674500e-01</leafValues></_>
    <_>
      <internalNodes>
        0 -1 18485 4.4124275445938110e-02</internalNodes>
      <leafValues>
        -7.4691212177276611e-01 2.9707738757133484e-01</leafValues></_>
    <_>
      <internalNodes>
        0 -1 44275 9.0024592354893684e-03</internalNodes>
      <leafValues>
        -3.8632068037986755e-01 5.0929486751556396e-01</leafValues></_>
    <_>
      <internalNodes>
        0 -1 79122 2.8780305292457342e-03</internalNodes>
      <leafValues>
        2.3897433280944824e-01 -8.3073669672012329e-01</leafValues></_>
    <_>
      <internalNodes>
        0 -1 140086 -5.3383810445666313e-03</internalNodes>
      <leafValues>
        5.9586924314498901e-01 -3.0780038237571716e-01</leafValues></_></weakClassifiers></stage5>
</opencv_storage>
