<?xml version="1.0"?>
<opencv_storage>
<stage10>
  <maxWeakCount>8</maxWeakCount>
  <stageThreshold>-9.2625969648361206e-01</stageThreshold>
  <weakClassifiers>
    <_>
      <internalNodes>
        0 -1 141638 4.6519841998815536e-03</internalNodes>
      <leafValues>
        -3.8574939966201782e-01 6.1290323734283447e-01</leafValues></_>
    <_>
      <internalNodes>
        0 -1 36745 5.0228857435286045e-03</internalNodes>
      <leafValues>
        -3.9702743291854858e-01 3.7431421875953674e-01</leafValues></_>
    <_>
      <internalNodes>
        0 -1 50399 -2.5205845013260841e-03</internalNodes>
      <leafValues>
        5.0743585824966431e-01 -3.2469674944877625e-01</leafValues></_>
    <_>
      <internalNodes>
        0 -1 126540 -3.9292089641094208e-03</internalNodes>
      <leafValues>
        2.2659011185169220e-01 -8.7427520751953125e-01</leafValues></_>
    <_>
      <internalNodes>
        0 -1 45943 -4.5829087495803833e-02</internalNodes>
      <leafValues>
        -9.3438464403152466e-01 1.3066767156124115e-01</leafValues></_>
    <_>
      <internalNodes>
        0 -1 76735 6.0153584927320480e-03</internalNodes>
      <leafValues>
        -6.7616498470306396e-01 1.8123680353164673e-01</leafValues></_>
    <_>
      <internalNodes>
        0 -1 142776 4.9394001252949238e-03</internalNodes>
      <leafValues>
        1.8575936555862427e-01 -7.3539757728576660e-01</leafValues></_>
    <_>
      <internalNodes>
        0 -1 82964 8.6667649447917938e-03</internalNodes>
      <leafValues>
        -2.5212803483009338e-01 5.5782526731491089e-01</leafValues></_></weakClassifiers></stage10>
</opencv_storage>
