<?xml version="1.0"?>
<opencv_storage>
<stage8>
  <maxWeakCount>8</maxWeakCount>
  <stageThreshold>-1.0627740621566772e+00</stageThreshold>
  <weakClassifiers>
    <_>
      <internalNodes>
        0 -1 58943 5.6736455298960209e-03</internalNodes>
      <leafValues>
        -5.5692309141159058e-01 4.6285715699195862e-01</leafValues></_>
    <_>
      <internalNodes>
        0 -1 43763 -9.4352266751229763e-04</internalNodes>
      <leafValues>
        5.1154959201812744e-01 -4.4434240460395813e-01</leafValues></_>
    <_>
      <internalNodes>
        0 -1 70488 -4.7710232436656952e-02</internalNodes>
      <leafValues>
        -3.6038583517074585e-01 5.6378036737442017e-01</leafValues></_>
    <_>
      <internalNodes>
        0 -1 136542 -7.7188401482999325e-03</internalNodes>
      <leafValues>
        7.0657891035079956e-01 -3.3829042315483093e-01</leafValues></_>
    <_>
      <internalNodes>
        0 -1 147325 3.0234480276703835e-02</internalNodes>
      <leafValues>
        -3.4455403685569763e-01 5.7137393951416016e-01</leafValues></_>
    <_>
      <internalNodes>
        0 -1 132550 9.9581768154166639e-05</internalNodes>
      <leafValues>
        2.8225174546241760e-01 -7.5944846868515015e-01</leafValues></_>
    <_>
      <internalNodes>
        0 -1 83598 3.9996532723307610e-03</internalNodes>
      <leafValues>
        -3.5903191566467285e-01 6.2388354539871216e-01</leafValues></_>
    <_>
      <internalNodes>
        0 -1 132207 6.3277501612901688e-03</internalNodes>
      <leafValues>
        2.6010793447494507e-01 -8.2233703136444092e-01</leafValues></_></weakClassifiers></stage8>
</opencv_storage>
